//Numpy array shape [24, 6]
//Min -0.621767699718
//Max 0.600691378117
//Number of zeros 0

#ifndef W4_H_
#define W4_H_

#ifndef __SYNTHESIS__
model_default_t w4[144];
#else
model_default_t w4[144] = {-0.2612, -0.1851, 0.0184, -0.0261, 0.1666, 0.1282, 0.3726, 0.3851, 0.1161, -0.4466, 0.4745, -0.3515, -0.2565, 0.3252, -0.3369, -0.0719, 0.0664, -0.0935, 0.3437, 0.3110, 0.1297, 0.4116, -0.1784, -0.0586, -0.1190, 0.2423, -0.1241, -0.3238, 0.5017, 0.1163, -0.1242, 0.4371, 0.3004, -0.1297, 0.3922, -0.3141, 0.2456, 0.4875, -0.1363, 0.0056, 0.3991, 0.3016, 0.1601, 0.4027, -0.1279, -0.0036, 0.2254, 0.0363, 0.3477, 0.4888, 0.0877, 0.4211, 0.0901, -0.4574, 0.6007, -0.1386, 0.1370, 0.3699, -0.5163, 0.2145, 0.2014, -0.2553, -0.1424, -0.2204, 0.2986, 0.3131, 0.0688, -0.0282, -0.3369, -0.4256, 0.1880, -0.0824, -0.0967, 0.0039, -0.3475, -0.2678, 0.1330, 0.0271, -0.4967, -0.0063, 0.1650, 0.2673, 0.4592, 0.2238, 0.1226, 0.1969, -0.1731, 0.2235, 0.3635, 0.2905, -0.2519, -0.0015, 0.3667, -0.6218, -0.3038, 0.1609, -0.3138, 0.2799, -0.2634, 0.3468, 0.1808, -0.0788, 0.0629, 0.0668, 0.0408, 0.0697, 0.3069, 0.1348, -0.3348, 0.3185, -0.2086, 0.2977, 0.3211, -0.3660, -0.3894, -0.1065, -0.0298, -0.2734, 0.3911, 0.2128, 0.0540, 0.2443, -0.0536, -0.2996, 0.0249, 0.4212, -0.3144, 0.0627, 0.1654, -0.0074, -0.1652, 0.2391, -0.2630, -0.4184, -0.3051, 0.2801, -0.2032, 0.0584, -0.1226, 0.4214, 0.4153, -0.0804, -0.0139, -0.1663};
#endif

#endif
