//Numpy array shape [3, 3, 3, 4]
//Min -0.360280960798
//Max 0.903499841690
//Number of zeros 0

#ifndef W2_H_
#define W2_H_

#ifndef __SYNTHESIS__
model_default_t w2[108];
#else
model_default_t w2[108] = {-0.0754, -0.0381, -0.1443, -0.0505, -0.0894, -0.0798, -0.1299, -0.1082, 0.2963, 0.3883, 0.1527, -0.2065, -0.0474, 0.4758, -0.1554, -0.1225, -0.2253, -0.1346, 0.0834, 0.9035, 0.5892, -0.1734, -0.0401, 0.7818, 0.4546, -0.1179, 0.0355, -0.1356, -0.1359, -0.0327, -0.1689, -0.1286, 0.5653, -0.0423, 0.0786, -0.1391, -0.1023, -0.1151, -0.1297, 0.3546, -0.0003, -0.1509, 0.1524, -0.1074, 0.5657, -0.0313, -0.1310, -0.1329, 0.1468, -0.0304, -0.2991, -0.1670, -0.0902, -0.2737, -0.2018, -0.0511, -0.1472, -0.1558, -0.1271, -0.0822, 0.1784, -0.1029, 0.1403, -0.0359, -0.0273, -0.1073, -0.0388, -0.1093, 0.1437, -0.0379, 0.0882, -0.1000, 0.2044, -0.0308, 0.0997, 0.0463, 0.4535, -0.1809, -0.1573, 0.0075, 0.1824, -0.0759, 0.2553, -0.0698, 0.0429, 0.8592, -0.0592, -0.1339, 0.0036, -0.1407, -0.3603, -0.1935, 0.1856, 0.3227, -0.2217, -0.1288, 0.2231, -0.0199, 0.1721, 0.0025, 0.1811, -0.1411, -0.2290, -0.1266, -0.2749, -0.1555, -0.1313, 0.5696};
#endif

#endif
