//Numpy array shape [3, 3, 4, 4]
//Min -0.717274427414
//Max 0.874492943287
//Number of zeros 0

#ifndef W4_H_
#define W4_H_

#ifdef __WEIGHTS_FROM_FILE__
model_default_t w4[144];
#else
model_default_t w4[144] = {0.2841, -0.4723, -0.1725, 0.0088, -0.3925, -0.1446, 0.0925, 0.1977, -0.2795, 0.4296, -0.3944, 0.0946, -0.0494, 0.0396, 0.1423, 0.0984, 0.4278, 0.0223, 0.4887, 0.0500, -0.3619, -0.2008, 0.0021, -0.1934, 0.1008, 0.0288, 0.5951, 0.6576, 0.2878, -0.2346, 0.0034, -0.6381, 0.0176, -0.1863, 0.4201, 0.0070, -0.2344, -0.4509, 0.2090, 0.1869, 0.6785, 0.5773, -0.2881, 0.1765, 0.0565, 0.3418, 0.2313, -0.4481, -0.3903, -0.1118, 0.2756, 0.1298, -0.1555, 0.0077, 0.0005, 0.2406, 0.6557, 0.4407, 0.4869, -0.0682, 0.8745, -0.0255, 0.3199, -0.3785, 0.3178, 0.7333, 0.1204, 0.0886, 0.4767, 0.1198, 0.2208, -0.2749, 0.6901, -0.1277, -0.0395, 0.4869, -0.7173, 0.2799, -0.2424, 0.1911, -0.0708, -0.6503, -0.3768, -0.5863, 0.6962, -0.4423, 0.4893, 0.5836, 0.4272, 0.5954, 0.0490, 0.3337, -0.0846, 0.7350, 0.0667, -0.1168, -0.3820, -0.4238, 0.2567, 0.1082, -0.3308, -0.2647, 0.1864, 0.1407, 0.7541, -0.3058, -0.3074, 0.6264, 0.0851, 0.0981, 0.3288, -0.4136, -0.0594, -0.4326, 0.4736, -0.1735, -0.5840, -0.1200, 0.6178, -0.0030, 0.6464, 0.6205, 0.2837, 0.3618, -0.0752, 0.8317, -0.3196, -0.0508, -0.2995, -0.1540, -0.1599, -0.3235, 0.7905, -0.0404, 0.5539, -0.1690, -0.0206, 0.1184, 0.4701, 0.6858, -0.5413, -0.0151, 0.2055, -0.2258};
#endif

#endif
