//Numpy array shape [3, 3, 16, 8]
//Min -0.551234245300
//Max 0.582570910454
//Number of zeros 0

#ifndef W5_H_
#define W5_H_

#ifndef __SYNTHESIS__
model_default_t w5[1152];
#else
model_default_t w5[1152] = {0.0607, 0.0244, 0.0514, 0.1614, 0.0827, -0.1851, 0.0776, 0.1307, 0.1967, 0.1191, 0.1019, -0.1296, -0.1060, 0.1499, -0.1656, -0.1651, -0.0729, 0.0690, 0.1667, 0.1598, 0.1633, 0.0847, 0.0180, -0.1738, 0.0250, 0.4803, 0.1171, 0.1232, -0.1836, -0.0694, -0.0221, 0.3108, 0.2165, 0.0831, -0.1040, 0.0796, -0.1241, -0.0403, -0.1640, 0.2194, 0.3313, 0.0084, 0.2582, 0.0242, -0.0036, 0.1442, -0.0142, -0.1172, 0.2677, 0.1390, 0.1626, -0.2374, -0.1542, 0.0456, -0.0585, 0.0567, -0.0128, 0.0141, 0.0999, -0.3107, -0.0874, 0.2069, -0.1089, -0.0344, 0.1351, 0.2007, 0.0671, -0.1184, 0.0529, 0.0282, -0.0737, -0.2075, 0.0004, -0.0182, 0.1336, 0.1821, -0.0228, 0.1753, -0.0169, -0.0968, -0.2319, -0.1250, -0.0680, 0.0805, -0.1698, -0.5512, -0.0850, 0.1082, 0.0948, 0.1352, -0.0115, 0.1816, 0.0695, 0.0124, -0.0901, -0.0016, -0.0732, 0.2511, 0.2787, -0.0404, 0.0481, -0.1556, -0.1803, 0.2809, -0.0637, -0.0505, -0.0537, 0.0113, 0.0308, -0.0082, -0.0609, 0.1630, -0.1022, -0.1015, 0.1613, 0.2144, -0.0640, -0.1493, -0.1020, -0.1146, 0.0501, 0.2377, 0.1820, -0.3756, -0.2404, -0.1865, 0.0502, 0.3332, 0.0787, 0.1646, 0.1335, 0.0204, 0.1315, -0.1690, 0.0269, 0.1198, 0.0325, 0.1850, 0.0103, -0.1923, -0.0157, -0.0590, -0.2126, -0.0623, -0.2004, 0.1017, 0.0537, -0.0523, 0.1080, 0.1015, -0.0902, -0.0138, 0.0421, -0.0522, -0.0904, 0.1528, 0.0735, -0.4988, 0.0498, 0.1156, 0.2657, 0.1645, -0.0193, -0.1770, 0.2155, -0.0560, -0.0483, 0.0682, 0.2593, 0.0986, 0.1442, 0.0687, -0.1345, 0.0891, -0.1744, -0.1656, -0.0199, 0.0654, 0.2796, -0.0638, -0.1294, -0.0280, 0.0146, 0.1280, -0.0795, 0.0649, -0.0365, -0.1280, -0.0679, -0.0371, -0.0103, -0.0701, 0.0315, 0.0551, 0.0472, -0.1252, 0.0752, -0.0429, -0.1078, -0.0483, -0.1089, -0.0850, -0.0155, -0.0885, -0.1688, -0.1400, 0.0314, -0.1728, -0.0262, -0.0393, -0.0811, 0.2349, 0.1177, -0.3478, 0.0315, -0.0183, -0.1258, 0.0958, 0.0849, 0.0252, -0.3053, -0.0625, -0.0700, -0.1381, -0.1897, 0.1083, -0.2266, -0.1024, -0.0220, -0.3107, -0.3079, 0.1110, 0.2311, 0.1344, 0.1305, 0.1785, 0.1188, -0.0218, -0.1907, 0.1326, -0.2168, -0.2146, -0.0947, -0.1176, 0.1876, -0.0193, -0.0860, -0.0336, -0.0623, 0.0172, 0.3152, -0.2287, 0.1359, -0.0926, 0.2023, 0.0720, -0.1339, 0.0781, -0.1731, 0.0574, 0.0318, -0.0474, -0.0989, -0.0457, -0.0015, -0.0673, -0.1799, 0.0616, 0.1327, -0.1458, 0.1662, -0.1305, -0.0736, 0.0416, 0.0056, -0.1696, 0.0123, -0.1322, 0.0144, 0.1949, -0.0619, -0.1990, -0.3308, -0.1612, 0.1955, 0.0194, 0.0151, -0.1160, 0.0058, -0.1776, -0.1529, -0.1120, 0.2527, -0.0740, -0.0664, -0.0236, -0.1449, -0.0144, 0.1768, -0.0226, 0.0092, 0.0509, 0.0929, -0.1741, -0.0333, 0.0505, 0.1173, 0.0242, 0.1658, -0.1268, -0.0907, 0.1747, -0.1118, 0.1944, -0.1595, 0.0041, -0.0151, 0.1357, 0.2215, 0.1687, 0.0760, -0.0152, 0.0571, 0.0805, 0.0667, -0.1609, 0.0148, -0.1491, 0.0976, -0.0365, -0.0668, 0.1601, -0.1733, -0.0744, -0.0058, -0.1592, 0.0945, 0.0253, -0.0573, -0.1524, 0.0678, 0.0328, -0.2005, 0.0993, -0.0629, 0.1636, 0.1442, 0.1201, -0.2850, 0.0864, 0.0195, -0.0986, -0.0245, -0.0775, -0.3251, 0.0184, 0.0527, -0.2286, 0.3458, -0.0095, 0.0332, 0.0883, -0.1576, -0.0846, 0.0372, -0.0473, -0.0445, 0.2720, 0.1414, 0.0897, -0.1227, -0.1334, -0.0689, 0.1180, -0.0115, 0.3414, -0.0141, -0.2317, 0.2002, 0.0356, 0.0903, -0.1094, 0.0216, -0.1854, 0.1528, -0.1840, -0.1381, 0.1937, 0.1316, 0.0139, 0.1450, 0.1164, 0.1061, -0.1608, -0.0995, -0.0011, 0.0727, -0.0076, 0.0836, -0.1495, -0.1921, -0.1875, -0.0950, 0.2558, 0.0823, -0.1926, 0.0737, -0.2102, -0.0463, -0.0080, 0.0439, 0.1625, -0.2202, -0.2604, 0.1059, 0.2714, -0.0597, 0.1013, 0.1246, 0.1444, -0.1099, -0.2025, 0.0418, 0.2138, 0.2888, 0.0745, -0.1267, -0.1674, -0.0783, 0.2492, 0.0696, -0.1419, 0.0910, -0.0185, -0.0495, 0.1707, -0.0166, 0.1057, -0.0119, 0.0507, -0.0533, -0.1420, -0.0835, -0.0252, 0.0191, -0.0322, -0.2213, -0.1546, 0.1890, 0.1449, 0.0299, 0.2357, -0.1165, -0.0202, -0.1325, -0.2270, 0.1027, 0.0048, -0.0011, 0.1304, -0.1496, 0.0980, -0.0467, 0.0039, 0.0180, -0.3418, -0.0306, 0.0245, 0.0166, -0.2300, 0.2336, -0.0016, 0.0505, 0.1154, -0.0532, -0.2110, -0.0450, 0.0622, 0.0647, -0.0606, -0.1775, -0.1914, -0.2587, 0.1420, -0.2009, -0.5110, 0.0198, 0.1413, -0.2283, -0.3563, -0.2342, 0.0597, 0.1222, -0.2607, 0.0312, 0.2364, 0.0997, -0.3032, -0.0933, 0.2419, 0.1007, -0.2990, -0.0009, -0.0875, 0.3455, 0.1723, -0.1370, 0.1894, -0.0763, 0.2991, -0.1012, 0.0795, 0.0498, -0.0641, -0.2209, -0.1510, 0.2031, -0.1226, 0.0460, 0.2573, 0.0197, -0.0665, -0.0454, 0.1279, 0.2057, 0.1149, -0.1621, -0.2369, -0.3025, -0.1635, 0.0785, 0.1943, -0.0363, -0.0123, 0.1315, 0.0184, 0.2227, -0.3604, -0.1087, -0.0410, 0.0890, -0.3339, 0.0983, 0.1073, 0.1407, -0.1529, -0.1968, -0.1349, 0.2317, 0.0147, 0.0629, 0.1114, 0.3427, 0.0719, -0.0006, -0.1003, 0.0249, -0.0677, 0.0450, -0.0737, 0.0252, 0.1199, -0.0555, -0.0195, -0.1471, 0.1262, -0.0468, -0.0923, -0.1753, -0.0461, 0.1867, 0.1217, -0.4051, 0.0098, 0.0853, 0.0130, 0.0126, 0.0725, 0.1063, 0.1961, -0.1908, 0.1087, 0.0615, -0.0439, -0.1981, -0.0419, -0.1690, 0.0236, 0.2971, 0.0575, 0.0799, -0.1073, 0.0951, -0.0731, -0.1736, -0.0937, 0.3178, -0.2606, -0.0502, -0.0719, -0.2424, -0.1033, 0.0707, -0.0014, -0.1590, -0.0223, 0.1777, 0.0752, 0.0908, -0.2836, 0.0252, -0.0101, 0.3269, -0.2595, -0.1058, 0.1946, -0.0199, -0.3162, -0.1159, 0.1059, 0.3130, -0.2644, -0.1458, -0.0532, -0.0866, -0.2515, 0.0121, -0.1063, 0.5826, -0.1079, 0.0511, -0.1537, 0.1029, 0.2069, -0.1472, 0.2391, 0.0382, 0.2465, 0.2197, 0.3253, 0.0647, 0.0135, 0.0648, -0.1252, -0.0195, -0.1341, 0.0615, 0.3383, -0.0409, 0.0268, -0.1714, 0.0302, -0.0714, 0.0935, 0.0129, -0.0136, -0.1724, -0.0248, 0.1357, 0.0904, -0.0310, 0.0565, 0.0122, 0.0906, -0.1400, -0.2742, -0.3360, -0.1417, 0.4606, -0.0421, 0.2662, -0.1073, -0.1065, 0.1373, -0.0831, -0.0773, 0.2786, -0.2012, 0.2965, 0.3448, -0.0495, -0.0113, 0.1215, -0.1986, 0.0984, -0.1828, 0.1599, -0.0038, 0.0515, 0.0707, -0.0273, 0.0007, -0.2005, -0.1333, 0.1111, 0.0755, -0.0404, 0.0824, -0.1135, -0.1536, -0.2835, -0.0423, -0.1323, 0.0959, 0.0381, 0.1446, -0.0095, 0.1301, -0.0734, -0.1077, -0.0854, -0.0245, 0.1621, 0.0917, 0.0744, -0.0814, 0.1618, 0.0900, 0.0145, 0.0451, -0.0191, -0.0982, -0.3290, 0.1243, 0.2420, -0.1443, 0.1893, 0.0108, -0.0325, 0.0496, -0.1063, 0.0162, 0.1607, 0.0474, -0.1058, -0.0538, -0.0982, -0.3051, -0.1854, -0.1082, 0.1587, -0.0273, 0.3949, 0.0092, -0.1504, -0.0395, -0.0681, 0.1025, 0.1627, -0.0211, 0.2183, 0.3177, 0.0200, 0.1201, -0.0075, -0.1528, 0.0622, -0.1551, 0.0297, 0.3158, -0.1864, 0.0789, 0.1131, -0.0262, -0.0319, -0.1948, 0.0703, 0.1739, -0.1041, -0.1475, 0.1614, -0.2151, -0.0827, -0.2440, -0.1161, 0.2432, -0.0097, 0.2106, 0.1508, 0.0310, -0.1484, -0.0783, 0.0075, -0.0639, -0.0131, 0.0318, 0.1422, -0.0864, -0.0040, -0.1183, -0.0819, 0.0915, -0.0824, 0.1463, -0.0344, -0.0470, 0.0047, -0.0958, -0.2318, 0.1890, 0.0628, 0.1247, 0.0590, -0.1482, -0.0544, 0.0103, -0.1524, 0.2680, -0.1053, -0.2717, 0.1133, 0.0954, -0.0524, 0.0945, -0.1314, -0.0986, 0.0404, -0.1482, -0.0370, -0.1237, -0.1269, -0.0998, -0.2067, 0.1602, -0.0170, -0.1124, 0.0886, -0.0777, -0.1122, 0.1122, -0.0093, -0.1068, -0.0886, -0.0160, 0.1024, 0.0535, -0.1190, 0.1280, -0.1003, -0.1571, 0.0740, 0.1517, -0.0754, -0.0297, 0.1212, -0.1561, 0.0906, -0.1036, 0.1341, -0.1246, -0.3311, 0.0650, 0.0662, -0.2183, 0.0051, 0.0363, -0.0453, -0.1552, -0.1266, -0.1648, 0.0888, 0.1466, -0.1012, -0.0133, 0.0717, -0.0903, 0.1512, -0.0748, -0.1919, -0.1702, -0.2411, 0.3399, 0.1293, -0.1034, -0.2251, -0.0003, -0.1896, -0.1017, 0.0017, 0.0467, 0.3584, -0.1220, -0.0960, -0.1626, 0.1514, -0.2536, -0.0465, 0.1106, -0.1786, -0.3643, -0.0578, 0.1576, -0.2233, -0.1833, -0.3112, 0.0275, -0.3069, -0.1657, 0.1340, -0.1339, 0.2077, 0.0871, -0.2516, 0.1464, -0.0205, 0.1829, 0.0389, -0.1912, 0.1246, -0.1421, -0.0896, -0.2648, -0.1124, -0.1169, 0.1452, 0.0800, -0.1527, -0.0176, -0.1319, -0.0069, 0.1329, 0.0240, 0.0568, -0.1843, -0.0558, -0.0652, 0.1036, 0.1192, -0.2355, 0.2316, -0.0544, -0.0388, -0.0026, 0.0260, -0.1764, 0.1622, -0.0117, 0.0478, 0.0424, 0.0394, -0.1583, 0.1300, 0.0241, -0.1282, 0.0073, 0.1636, 0.1500, 0.0537, -0.0489, 0.0044, -0.1019, -0.0163, 0.1322, 0.1016, 0.0633, 0.1042, -0.2378, -0.0203, -0.1622, -0.0843, -0.0489, -0.0925, -0.0449, 0.0195, -0.2426, 0.0112, 0.0240, -0.0802, 0.0871, -0.1503, 0.0874, -0.0583, -0.2789, -0.0559, 0.1010, 0.0351, 0.0239, -0.2887, -0.2241, 0.0100, 0.0282, -0.1648, 0.1604, 0.0220, -0.0266, 0.2348, 0.1407, -0.1078, -0.0962, -0.1147, 0.1347, 0.0874, -0.0882, 0.2054, -0.2513, -0.2443, -0.0063, -0.1768, 0.0079, 0.1768, 0.0800, -0.0557, -0.1248, 0.0762, -0.0630, -0.2548, -0.0347, 0.0716, 0.0192, -0.0301, 0.1016, -0.0625, -0.0003, -0.0544, 0.3336, -0.0276, -0.2397, -0.1580, -0.0899, 0.0493, -0.1427, -0.1109, 0.0005, 0.2953, 0.0224, 0.2736, -0.0522, 0.0643, -0.2856, -0.1682, 0.1008, 0.0491, 0.0632, -0.0668, 0.0248, -0.0759, 0.1249, -0.0031, 0.1529, -0.1618, -0.0330, -0.0298, 0.0764, -0.0570, -0.1964, 0.1412, -0.0655, 0.2135, -0.0149, 0.0380, -0.1790, 0.1294, 0.0103, -0.1314, 0.1782, -0.0277, 0.0459, 0.1200, 0.0316, -0.1834, 0.0742, -0.1796, 0.0574, 0.1989, 0.1189, 0.1142, -0.2035, -0.1277, -0.0293, 0.0829, 0.1113, 0.1975, -0.0942, -0.1028, 0.0976, -0.1565, -0.0309, 0.0662, -0.2442, 0.0053, -0.1727, -0.0504, -0.0070, -0.1458, -0.0956, 0.0010, -0.0463, -0.0327, -0.1391, 0.1256, 0.0083, 0.0315, -0.1330, -0.0830, -0.0866, 0.1280, 0.0642, -0.0541, 0.0223, -0.0519, -0.0849, 0.0793, 0.2792, 0.0280, -0.0225, 0.1652, -0.0928, -0.0866, -0.0243, -0.0261, 0.1130, 0.2376, 0.0498, -0.0906, -0.1476, -0.0291, -0.0207, -0.1512, 0.0414, -0.0438, -0.0545, 0.3078, -0.1185, -0.1484, 0.0586, -0.1598, 0.5060, 0.1426, -0.0946, 0.0998, -0.1355, -0.0794, -0.1444, -0.0810, 0.1682, 0.2025, -0.1125, 0.4042, -0.1790, -0.1352, -0.0681, -0.0880, -0.0315, 0.3681, -0.0900, 0.0031, -0.1308, -0.0535, -0.1883, -0.0196, -0.0703, 0.1040};
#endif

#endif
