//Numpy array shape [3, 3, 8, 4]
//Min -0.881496906281
//Max 0.650682568550
//Number of zeros 0

#ifndef W8_H_
#define W8_H_

#ifndef __SYNTHESIS__
model_default_t w8[288];
#else
model_default_t w8[288] = {0.0087, 0.0150, -0.1742, 0.1025, 0.0446, -0.0095, 0.1842, -0.1507, 0.1902, -0.2181, 0.1519, 0.1447, 0.0545, -0.0391, -0.1717, 0.0157, 0.0434, -0.2251, 0.2281, -0.0223, -0.1322, 0.1073, -0.0240, 0.0070, 0.0222, 0.0642, 0.2014, 0.1461, 0.2199, 0.0859, -0.0812, 0.1030, 0.0645, 0.1481, -0.1045, -0.1539, 0.3249, -0.3045, -0.8637, -0.1017, 0.2872, -0.0180, -0.1799, 0.1491, 0.0456, 0.2331, -0.3669, 0.2030, -0.3873, 0.6507, -0.8815, -0.0106, 0.2714, -0.7780, -0.3493, -0.3044, 0.0292, -0.3775, -0.4319, -0.1673, 0.5504, 0.2566, -0.7527, -0.0120, -0.1678, 0.1156, 0.0233, 0.1801, 0.1640, -0.0554, -0.0427, -0.1163, -0.1581, -0.2069, -0.2299, 0.0405, 0.2199, 0.1754, -0.1947, 0.1244, 0.0105, 0.0099, -0.0492, 0.1634, -0.1829, 0.2262, -0.0053, -0.1306, -0.0080, -0.2124, 0.0642, 0.1233, -0.0642, 0.1269, 0.0488, -0.0153, 0.1431, -0.0922, -0.0946, -0.0891, -0.0097, 0.0976, 0.2142, -0.0592, -0.0067, 0.1978, -0.0866, -0.1598, 0.2032, 0.1296, 0.1821, -0.1115, -0.0354, 0.0268, 0.0790, 0.0152, -0.0353, 0.1873, -0.1880, -0.2023, -0.0807, -0.1428, 0.0764, 0.1301, -0.1644, -0.1339, 0.1469, -0.1371, -0.2075, 0.2353, 0.3617, -0.4499, 0.1790, -0.2075, 0.3041, 0.0103, 0.4605, 0.0658, -0.6664, -0.3118, 0.4252, -0.0158, -0.4691, 0.4229, -0.2584, 0.2037, 0.0179, 0.3011, 0.5300, -0.0871, -0.0774, -0.8094, -0.5561, -0.1289, 0.2397, 0.2397, 0.1696, 0.2401, 0.1618, 0.4986, 0.0716, -0.0276, -0.0198, 0.1819, 0.1028, 0.2095, 0.0610, -0.1469, -0.2329, -0.1801, -0.1034, 0.0672, -0.1460, -0.0509, -0.0221, -0.0091, 0.1715, -0.0488, -0.1460, 0.1741, -0.0401, -0.0480, 0.1893, 0.0732, 0.0322, -0.0384, 0.0067, 0.0493, 0.2339, -0.1784, -0.1998, 0.0278, -0.1811, -0.1265, -0.2040, 0.1755, -0.0728, -0.1539, 0.0021, 0.2055, 0.2033, 0.1777, 0.1747, -0.0696, 0.0221, 0.1627, 0.0836, 0.0756, -0.1394, -0.1537, -0.1687, 0.1033, 0.1318, 0.0586, 0.1571, -0.1204, 0.1346, -0.0391, 0.2311, -0.1363, -0.0965, -0.2230, -0.2111, 0.2282, -0.0754, 0.3412, -0.0021, -0.3512, 0.1445, -0.1303, 0.0188, 0.2142, -0.0657, 0.0800, 0.3320, -0.4747, -0.1255, 0.0372, 0.2680, -0.1980, -0.0718, 0.2354, -0.0961, -0.1723, 0.1552, 0.1359, 0.3032, -0.4132, -0.2693, -0.3335, -0.3609, 0.3271, 0.3018, 0.0988, 0.1701, 0.4011, -0.1354, 0.2338, 0.0357, -0.0465, 0.2122, 0.0775, 0.2340, 0.0792, 0.1009, -0.0686, -0.1783, -0.1097, -0.0592, 0.0559, 0.1826, 0.0497, -0.0296, 0.2295, -0.0999, 0.1378, -0.2056, -0.0704, 0.0789, 0.1204, -0.1961, 0.1708, 0.1049, -0.0559, 0.2124, -0.1306, 0.1193, 0.1697};
#endif

#endif
