//Numpy array shape [3, 3, 4, 4]
//Min -0.805001676083
//Max 0.831254184246
//Number of zeros 0

#ifndef W6_H_
#define W6_H_

#ifndef __SYNTHESIS__
model_default_t w6[144];
#else
model_default_t w6[144] = {0.2324, -0.1480, -0.0468, -0.3169, 0.2532, 0.2754, 0.2864, 0.3887, 0.0099, -0.3425, -0.2711, -0.0611, -0.4439, -0.0943, 0.1815, -0.2642, -0.1112, -0.0456, 0.7516, 0.4626, -0.2123, 0.2717, -0.0465, 0.0390, -0.1366, 0.1716, -0.0813, -0.7360, 0.1448, 0.3052, -0.1680, 0.2172, -0.1808, 0.1082, -0.2859, -0.0130, 0.3334, 0.2737, 0.3330, -0.0904, -0.1501, 0.2602, 0.2786, -0.0514, 0.3575, -0.1085, 0.8313, -0.0759, 0.3640, -0.5264, -0.4377, 0.1768, 0.7205, 0.1578, -0.2834, 0.2696, -0.3801, -0.0960, 0.2931, 0.2084, 0.0147, 0.1671, 0.1957, 0.1940, 0.2545, 0.4465, -0.4008, 0.6896, -0.1360, 0.5732, 0.3910, 0.0557, 0.0447, -0.1156, 0.0717, 0.2504, -0.2293, 0.2425, 0.2389, 0.4040, 0.1763, -0.2363, -0.8050, -0.3620, 0.8147, -0.0091, -0.0965, -0.0732, -0.4023, -0.5251, -0.3669, 0.1719, 0.3588, 0.6019, 0.2116, 0.0708, 0.3309, 0.2668, -0.0936, -0.2946, 0.0197, 0.1880, 0.4333, -0.2144, -0.5037, -0.1963, 0.1425, 0.1275, 0.3578, 0.3191, 0.5483, 0.2599, -0.4592, -0.1375, -0.0933, -0.1343, -0.3561, -0.0801, -0.1138, -0.5888, 0.3580, -0.2822, 0.2125, -0.4488, -0.5529, -0.4710, 0.1340, 0.0294, -0.1314, 0.1154, 0.4795, 0.2664, -0.3204, -0.0373, -0.2324, 0.1841, 0.2896, 0.3717, -0.1980, 0.1511, 0.2823, 0.7332, 0.4626, -0.0782};
#endif

#endif
