//Numpy array shape [3, 3, 1, 32]
//Min -0.465443193913
//Max 0.371309757233
//Number of zeros 0

#ifndef W2_H_
#define W2_H_

#ifndef __SYNTHESIS__
model_default_t w2[288];
#else
model_default_t w2[288] = {0.0260, 0.1912, 0.1740, -0.2376, -0.0156, 0.1072, -0.2041, -0.1847, 0.1956, -0.1373, -0.1624, -0.2786, -0.0126, -0.1084, -0.0496, 0.2307, 0.2122, 0.2191, -0.1112, -0.0347, -0.1956, 0.0226, 0.2481, 0.1250, 0.1764, -0.0038, -0.0488, 0.2585, 0.0304, 0.1113, 0.1779, 0.0888, 0.0085, -0.0488, -0.0716, -0.3376, -0.4062, -0.2609, 0.0508, -0.2317, 0.1566, 0.2356, 0.1354, 0.1728, 0.1366, 0.1694, -0.0961, 0.1928, 0.0425, -0.1676, 0.2238, 0.1237, -0.1237, 0.1005, -0.0598, 0.0637, -0.1087, 0.0618, 0.1872, -0.0054, -0.2901, 0.1195, 0.0471, -0.1717, -0.1153, 0.1803, -0.3079, -0.0369, 0.2251, -0.1573, 0.1184, 0.2193, 0.0711, 0.0884, 0.1832, -0.0601, 0.1143, 0.2069, 0.0063, -0.0810, -0.2726, 0.1574, 0.2209, 0.3234, -0.1635, -0.0021, 0.1269, -0.4329, -0.2391, -0.0893, 0.1858, -0.1118, 0.0523, 0.1696, -0.1973, -0.1215, -0.0199, -0.1270, -0.1014, -0.1554, -0.1541, 0.0190, -0.0504, -0.0634, -0.3480, 0.1951, 0.2213, -0.0157, -0.1427, 0.0948, 0.3267, -0.2808, 0.0079, 0.1117, -0.1603, -0.0914, 0.0242, 0.1705, 0.0426, -0.1947, 0.1485, 0.1840, -0.0853, 0.1905, -0.0571, -0.1087, 0.0055, -0.1274, -0.0772, -0.0500, 0.2322, 0.3713, -0.1727, 0.1013, -0.0049, -0.1110, 0.1324, -0.0007, 0.1505, 0.1689, 0.1051, -0.0787, -0.1312, 0.0202, 0.0268, 0.1030, -0.1997, -0.1145, 0.0216, -0.0180, -0.1366, 0.1904, 0.3328, 0.1270, 0.0109, -0.4654, 0.3366, 0.0498, -0.2588, 0.2480, 0.2299, -0.1036, 0.3499, 0.1935, -0.0980, 0.1090, -0.2162, -0.2850, 0.0401, 0.0694, 0.0322, -0.1728, -0.2777, 0.0054, 0.1207, 0.0791, 0.1182, 0.0354, 0.1758, 0.0432, -0.3908, -0.3458, 0.0604, -0.1141, 0.0049, 0.1159, 0.1174, 0.2726, 0.2088, -0.2581, 0.0374, 0.0513, -0.0058, 0.2527, 0.0176, 0.1614, 0.0939, -0.2507, 0.2072, 0.2293, 0.0906, 0.0679, -0.1437, -0.0869, -0.1995, -0.2126, -0.2220, 0.0438, 0.2007, 0.2432, 0.0119, -0.0851, -0.0235, -0.0319, -0.2857, -0.1872, -0.0562, 0.1801, 0.3002, -0.0140, 0.0100, -0.1616, 0.0187, -0.1176, -0.0051, -0.1495, -0.2898, -0.1470, 0.0565, 0.1445, -0.1611, 0.2426, 0.2192, -0.0507, 0.0881, 0.1938, 0.2830, -0.1782, 0.1070, 0.0606, -0.3584, -0.0875, 0.0316, 0.1256, 0.2159, 0.2489, -0.2245, -0.1658, -0.1830, -0.2281, -0.2091, -0.2425, -0.0247, 0.1386, 0.1529, -0.2065, -0.0694, 0.0020, -0.1848, -0.0952, 0.2426, 0.0691, 0.0736, 0.2752, -0.0693, -0.0710, 0.1878, -0.1775, 0.0143, -0.1407, -0.0545, 0.1809, 0.3082, 0.1771, 0.2734, -0.1295, -0.1810, -0.0346, -0.2215, 0.1975, 0.1374, -0.2970, 0.0950, 0.0323, -0.0831, -0.1320, 0.1581, 0.1061};
#endif

#endif
