//Numpy array shape [128, 10]
//Min -0.452628761530
//Max 0.302660435438
//Number of zeros 0

#ifndef W9_H_
#define W9_H_

#ifndef __SYNTHESIS__
model_default_t w9[1280];
#else
model_default_t w9[1280] = {-0.0640, -0.0984, -0.3261, 0.1233, -0.2751, -0.2458, 0.0381, -0.0436, 0.1754, -0.3774, 0.1803, -0.2690, -0.0866, -0.1624, 0.1296, -0.2171, -0.1487, -0.1007, -0.0979, 0.2148, -0.1089, -0.3458, -0.2380, 0.1449, -0.1611, 0.0249, 0.1680, -0.2566, -0.0884, 0.1577, -0.2574, 0.0746, -0.1945, -0.2610, -0.1888, 0.0244, -0.1196, -0.2789, -0.1069, -0.2464, -0.0443, 0.2330, -0.0140, 0.1263, -0.2009, -0.3095, -0.3848, 0.1660, 0.1302, 0.0376, -0.2539, 0.1460, 0.1343, 0.2491, -0.1442, -0.3249, 0.0727, 0.1423, -0.2096, -0.2209, 0.0501, -0.2812, 0.2145, -0.2601, 0.0425, -0.2207, -0.1177, -0.0908, -0.2590, 0.2151, -0.0128, -0.0545, 0.0635, 0.1332, -0.2629, 0.1955, -0.3425, 0.1316, -0.0906, 0.1814, -0.1250, 0.0053, -0.1747, 0.0516, 0.1611, -0.2787, -0.1939, 0.1867, 0.0793, -0.2943, -0.3167, -0.2975, 0.0996, -0.2736, -0.0662, -0.1695, 0.2330, 0.0467, 0.2340, -0.3312, -0.3555, 0.1376, 0.0829, 0.0276, -0.2606, -0.0625, -0.1852, -0.3351, 0.2081, -0.0917, -0.0412, 0.0254, -0.1665, 0.1204, -0.1511, 0.2463, 0.1701, 0.1971, -0.3286, 0.1562, -0.1596, -0.3162, 0.0775, 0.1656, -0.0110, 0.0683, -0.2008, 0.1780, -0.1991, 0.2095, -0.1299, -0.3611, -0.0096, -0.3061, -0.0678, -0.2999, -0.1696, 0.1018, 0.1367, 0.1966, -0.2671, -0.2459, -0.0978, 0.1704, 0.2143, -0.1506, -0.1174, 0.0736, -0.1543, -0.2939, -0.1685, -0.2007, -0.3005, -0.2271, -0.3052, 0.1623, 0.2763, -0.1408, 0.0921, 0.1680, 0.2624, 0.2444, 0.0894, 0.1299, 0.2041, 0.1233, -0.0848, 0.1968, -0.1214, -0.1533, -0.1561, 0.0552, -0.0026, -0.3017, -0.1572, 0.1302, 0.2361, -0.1269, -0.0784, 0.1691, -0.1480, -0.2436, 0.2634, 0.0937, 0.1980, 0.1478, 0.0935, -0.3327, -0.1188, -0.1339, -0.0607, -0.2556, -0.2830, -0.1356, 0.0813, 0.0812, -0.1667, 0.1781, -0.1557, 0.1691, -0.2636, -0.2226, 0.1414, -0.0230, -0.1164, -0.3314, 0.1902, -0.2594, -0.0598, 0.0929, -0.1917, -0.3770, -0.1356, 0.1617, 0.2084, -0.1579, -0.2735, 0.1503, -0.2518, -0.2336, -0.2286, 0.0590, -0.1898, -0.1062, -0.1647, -0.2483, -0.1124, -0.0365, 0.1710, -0.3113, -0.2620, -0.3520, -0.2731, -0.2488, 0.1003, 0.0844, 0.0546, -0.2335, 0.1691, 0.0055, -0.0861, 0.1979, -0.1425, 0.2368, 0.1152, -0.1704, 0.0439, 0.1596, -0.2017, 0.1798, -0.3323, -0.2583, -0.2393, -0.3523, 0.1892, -0.1925, -0.0556, -0.2552, 0.0187, -0.1227, -0.0045, -0.3157, -0.3315, 0.1801, 0.0914, -0.1242, -0.2332, 0.1549, 0.1821, -0.3620, -0.1435, 0.0891, 0.1887, -0.0449, -0.0196, -0.3209, -0.3848, -0.1362, -0.1223, 0.1687, 0.1826, 0.1186, 0.1737, 0.0557, -0.1934, -0.0894, 0.1292, -0.2236, -0.2037, -0.0082, 0.0545, 0.1278, 0.1853, 0.0743, 0.2979, -0.0637, -0.3072, 0.1934, -0.2681, -0.3530, 0.0812, -0.2108, 0.1324, -0.1896, 0.2149, -0.1755, -0.2567, -0.3598, -0.1384, -0.0479, 0.0248, -0.3230, -0.2689, -0.2695, 0.0974, -0.1092, -0.1993, -0.1243, 0.1653, -0.1427, 0.1632, -0.3057, 0.1907, 0.2341, -0.3370, -0.1476, -0.0309, 0.1400, -0.2602, 0.1748, -0.3892, 0.1267, -0.3998, 0.0954, -0.0952, 0.0045, 0.0825, -0.2222, -0.1994, -0.0473, -0.1391, 0.1353, 0.1716, 0.1902, 0.0777, -0.1915, -0.1968, -0.2617, -0.0957, 0.0878, -0.0241, -0.2120, -0.2047, 0.1266, 0.2254, -0.3744, -0.0902, -0.1953, -0.2757, 0.0983, -0.2491, 0.1279, 0.1390, -0.3407, -0.3106, 0.0971, 0.1239, 0.1190, 0.2644, -0.2203, -0.1137, -0.0197, 0.1774, -0.2016, 0.0653, -0.3145, -0.0413, 0.0202, 0.0194, -0.1558, 0.1492, 0.1829, -0.3404, -0.3583, -0.2687, 0.0626, 0.1313, 0.1629, 0.1909, -0.3237, -0.4360, -0.1281, -0.1841, 0.1715, -0.2737, -0.1953, 0.1206, -0.2867, 0.1083, -0.3453, -0.2155, 0.0522, -0.0121, -0.3675, 0.1163, 0.1427, 0.1100, 0.0783, -0.1889, 0.0468, 0.1788, 0.1818, -0.0329, 0.1360, 0.1488, -0.3099, -0.3508, 0.2008, -0.3307, 0.1625, 0.1669, 0.0957, -0.1635, -0.1838, 0.1089, 0.0884, 0.0149, -0.0668, -0.3729, 0.1436, 0.1620, -0.3070, -0.1910, -0.3391, 0.1576, -0.4056, 0.0934, -0.0948, 0.1742, -0.2657, -0.3497, -0.2977, 0.0550, -0.2358, -0.3771, -0.3177, 0.0115, -0.3478, -0.2207, 0.0861, 0.2111, -0.1050, -0.0962, -0.3000, -0.0646, 0.1799, 0.1294, 0.1911, -0.2158, -0.2261, 0.1208, -0.3365, -0.3708, -0.1760, 0.1774, 0.1307, 0.2177, 0.0329, -0.0303, -0.0489, -0.2735, 0.1720, 0.1405, 0.1662, -0.3399, -0.1575, 0.1127, 0.0877, 0.1502, -0.3402, -0.2300, 0.0088, -0.2875, 0.0148, -0.2759, -0.0556, -0.3338, -0.0474, -0.2030, -0.2994, 0.1107, 0.1199, -0.1431, 0.0911, -0.2188, -0.1594, -0.0357, -0.4353, -0.3175, -0.0157, -0.2966, 0.2116, -0.3499, -0.2438, -0.0445, 0.0827, 0.0039, -0.2765, 0.0805, -0.0065, 0.1088, -0.2732, 0.2063, 0.1382, -0.3537, -0.2492, -0.2516, -0.1336, 0.0106, 0.2177, -0.1266, 0.0564, -0.3618, -0.0993, -0.2330, 0.1575, -0.3004, 0.1161, -0.0966, -0.3244, -0.0031, 0.0503, 0.1067, -0.3628, 0.1333, -0.1513, -0.1604, -0.0741, 0.1518, -0.0325, -0.0046, -0.3169, -0.3084, 0.1359, -0.0910, -0.1289, 0.1856, 0.1259, 0.1501, -0.2901, -0.3040, -0.1963, -0.1204, -0.0309, 0.2552, -0.3248, 0.1627, 0.1594, -0.4379, -0.2803, 0.1869, -0.3119, 0.1655, -0.2840, 0.1653, -0.2938, 0.1359, -0.1054, 0.1289, -0.1173, -0.1896, 0.1054, 0.1957, 0.1513, 0.2353, 0.1450, -0.0678, -0.1180, -0.2546, -0.2230, 0.1514, -0.2019, 0.0751, -0.2948, -0.3705, 0.1452, -0.1773, -0.2293, -0.2418, 0.1490, 0.1855, -0.2785, -0.3183, -0.0354, -0.1359, 0.0383, -0.3227, 0.1630, 0.0360, -0.2264, 0.1146, -0.1866, 0.0814, 0.1048, -0.0914, -0.0526, -0.2046, 0.1497, -0.1344, -0.2360, 0.1754, 0.0454, 0.2172, -0.2151, 0.1209, -0.3060, -0.2484, 0.0857, -0.2977, -0.0013, -0.2973, -0.1990, 0.1581, 0.2043, 0.0233, 0.1944, -0.1867, -0.2487, -0.2356, -0.0461, -0.2536, 0.2099, -0.2280, 0.1948, -0.2944, 0.1825, 0.0063, 0.1075, -0.3013, -0.2263, -0.2721, 0.1187, 0.1413, 0.1835, -0.1778, -0.1898, 0.0257, -0.0021, -0.3175, 0.1361, -0.1714, 0.0085, -0.1915, -0.2738, 0.1990, -0.1604, -0.1164, 0.2642, 0.1884, -0.2235, 0.1350, 0.1411, -0.3515, -0.1917, 0.1483, 0.2623, -0.1811, 0.1538, 0.3027, -0.2324, -0.2756, 0.1305, -0.1123, 0.1915, 0.2084, -0.3066, -0.3006, -0.2290, 0.0699, -0.2745, 0.1258, -0.1908, -0.0768, 0.1827, -0.3828, -0.0533, 0.1576, -0.1219, -0.0701, 0.1428, -0.1298, -0.0249, 0.0442, -0.1388, -0.2096, 0.1200, -0.2194, -0.0751, -0.2305, 0.0825, -0.0540, -0.2558, -0.1510, -0.1356, 0.0982, 0.0385, -0.1505, -0.0196, -0.2129, 0.0975, 0.1861, -0.2159, -0.0139, 0.1784, 0.1170, -0.2871, 0.1098, -0.2419, -0.2762, 0.1519, -0.2548, -0.1705, 0.2155, 0.0352, 0.0078, -0.2084, -0.2022, -0.1659, 0.0796, 0.2247, 0.1356, 0.0216, -0.2847, -0.1801, -0.1203, 0.0427, 0.0411, -0.0726, -0.1555, -0.0604, -0.3005, 0.2401, -0.0393, -0.1014, -0.3350, 0.0062, -0.2810, 0.0875, -0.1191, -0.2429, 0.1864, 0.0845, -0.1401, 0.0967, -0.1515, 0.1569, -0.2586, 0.0598, -0.1972, 0.0983, 0.1500, -0.1414, 0.0647, 0.1697, 0.0971, -0.0998, 0.1622, -0.1007, 0.1411, 0.1797, 0.1054, 0.1822, -0.1403, 0.1122, 0.0269, -0.0812, 0.1270, 0.1356, 0.1222, -0.2117, -0.3246, 0.2002, -0.1095, 0.1212, 0.1081, -0.1527, -0.0648, -0.1731, -0.2362, 0.1180, -0.3191, -0.2576, -0.1405, -0.1383, 0.1278, -0.1684, -0.1004, -0.1748, -0.1105, 0.1517, -0.2330, -0.2056, -0.2429, -0.2356, -0.0582, -0.3626, -0.2727, -0.3335, -0.2071, 0.1369, 0.0096, -0.1079, -0.2267, -0.2854, -0.1587, 0.0498, -0.1980, 0.1254, -0.1961, 0.0327, -0.0911, -0.0486, -0.2700, -0.2089, -0.1915, 0.0539, -0.3375, -0.2843, 0.2063, 0.1648, -0.0311, 0.1890, -0.3299, -0.3069, -0.1203, 0.1589, 0.1464, 0.1927, 0.1816, -0.1359, -0.3131, -0.3615, -0.1998, -0.0787, -0.3240, 0.1359, 0.1785, 0.1866, -0.2640, -0.3372, -0.0134, 0.0734, -0.1229, -0.1536, 0.1717, 0.1283, -0.4319, 0.2255, 0.1539, -0.3200, -0.1976, -0.1541, 0.1811, -0.1462, 0.1965, 0.1094, -0.2723, -0.1915, -0.1127, 0.0031, -0.0518, -0.4473, -0.2636, 0.1168, -0.1618, 0.0911, -0.1138, 0.0774, 0.1358, -0.2461, 0.0662, 0.0813, 0.2469, -0.1561, 0.1896, -0.1493, -0.2436, -0.2282, 0.1919, 0.1646, 0.0720, 0.1313, -0.2382, -0.3606, -0.1717, 0.1886, 0.0219, -0.1662, -0.2926, -0.2429, 0.1289, -0.1049, -0.3025, -0.2620, -0.4230, -0.3062, -0.0568, 0.1378, -0.1491, 0.1457, -0.2552, 0.1613, -0.2846, 0.2698, 0.2746, -0.1991, 0.0579, -0.0529, 0.1319, 0.1417, -0.0286, 0.2017, 0.1645, 0.1691, 0.0804, -0.1854, -0.0148, 0.0145, -0.2740, -0.2421, -0.3900, 0.2129, 0.1997, 0.1066, -0.1780, 0.1770, -0.3638, 0.2079, -0.1915, -0.1396, 0.1562, -0.2281, -0.2246, -0.2932, 0.2178, 0.0969, -0.0032, 0.0767, 0.1451, 0.2541, -0.2561, 0.0972, 0.1586, -0.3038, 0.0813, 0.0091, -0.2729, 0.1184, -0.0678, 0.1607, 0.1579, 0.1603, -0.2530, 0.0005, -0.0629, 0.1562, 0.0366, -0.2236, 0.0868, 0.1658, -0.2721, -0.1722, -0.3075, -0.3243, -0.3271, -0.2406, 0.1690, 0.1558, -0.2008, -0.4526, 0.1583, -0.1178, -0.2499, 0.0019, 0.1310, -0.1736, -0.2052, 0.1641, -0.4197, 0.0997, 0.0234, -0.1221, -0.1404, -0.3324, -0.0670, -0.2367, -0.3186, -0.2334, 0.1221, 0.0901, 0.2165, -0.3089, 0.1293, -0.3065, 0.2444, -0.1012, 0.1347, -0.2802, 0.2056, -0.0078, -0.2850, 0.0847, -0.2045, 0.1840, -0.0297, -0.2123, 0.1436, -0.1855, -0.3442, -0.2672, -0.2616, -0.1766, -0.1819, 0.2089, 0.2121, -0.2828, -0.0702, 0.1437, -0.3632, 0.1414, 0.0114, -0.1741, -0.1699, 0.1215, 0.1616, -0.3181, 0.1703, -0.0556, -0.2482, -0.2696, -0.0615, -0.2125, -0.1073, 0.1371, 0.0794, 0.0313, -0.0571, 0.0756, 0.1806, -0.2741, -0.2053, 0.1153, -0.2810, -0.3671, 0.1272, -0.2371, 0.2195, -0.2882, -0.0716, 0.0946, -0.1811, -0.2879, -0.3157, -0.0906, -0.2102, -0.1457, -0.2695, -0.3020, -0.2745, -0.0745, 0.1011, 0.1531, -0.1914, -0.2448, 0.1636, 0.1159, 0.1083, -0.1543, -0.3532, 0.1122, -0.2264, 0.1524, 0.0634, 0.0607, 0.1245, -0.2883, -0.2656, 0.1294, 0.1440, -0.2737, 0.1795, -0.1898, 0.0188, -0.2060, -0.1234, 0.1779, 0.0305, 0.1271, -0.1648, -0.0402, 0.1275, 0.0923, -0.2137, 0.1332, -0.1191, 0.1270, -0.3566, -0.1500, -0.3100, 0.1078, -0.3479, 0.1468, 0.0080, 0.1614, 0.1222, 0.1097, -0.1942, 0.0658, 0.2104, 0.1224, 0.0830, 0.1063, -0.2394, -0.1936, -0.1301, -0.3019, -0.1385, 0.0647, -0.1400, 0.0875, 0.0487, -0.2757, 0.0785, 0.0858, -0.0836, 0.1166, 0.0617, -0.2127, -0.0814, -0.2594, 0.0296, 0.1397, 0.0596, 0.1996, 0.1027, -0.2272, 0.0581, -0.3348, -0.0528, 0.1889, -0.1964, -0.3060, -0.0451, -0.3327, -0.3434, 0.1306, -0.1690, -0.0205, -0.2005, 0.1797, -0.0762, -0.0954, -0.1248, -0.2012, 0.2252, 0.1990, 0.0274, -0.2442, -0.2081, -0.1021, -0.3314, -0.0486, 0.0940, -0.1931, 0.1219, -0.3368, 0.0083, -0.0902, 0.1727, -0.3036, -0.0368, -0.2989, -0.0761, -0.3415, -0.2737, 0.1759, -0.2998, -0.0249, 0.0180, 0.0115, -0.1072, 0.1506, 0.1974, 0.0773, 0.2230, 0.1349, -0.3331, 0.1517, -0.2671, -0.2445, -0.2472, 0.1842, 0.1406, -0.0178, -0.0429, -0.1650, -0.2512, 0.1536, 0.1447, 0.0027, 0.0563, 0.1130, -0.1361, 0.1188, 0.0954, -0.0065, 0.1003, 0.1343, -0.0265, -0.2798, -0.3734, -0.3770, -0.0421, -0.1429, 0.0612, 0.1759, 0.2190, -0.1242, 0.1021, 0.1184, -0.2948, -0.1412, 0.1081, 0.1164, -0.1058, -0.2444, 0.1136, 0.1530, -0.2990, 0.1326, 0.1078, -0.1018, 0.1337, 0.1307, -0.2919, -0.3153, -0.3286, -0.2576, 0.1048, -0.3996, -0.1733, 0.0611, 0.1797, 0.2114, 0.0838, 0.1273, 0.1007, -0.1964, -0.3298, 0.0307, -0.2652, 0.0176, -0.3186, -0.2365, -0.2503, 0.1245, 0.2459, 0.1950, -0.1558, -0.1042, -0.1783, 0.1792, -0.2833, 0.1682, 0.0201, 0.0335, 0.2071, 0.1439, -0.2545, -0.0230};
#endif

#endif
