//Numpy array shape [3, 3, 4, 4]
//Min -0.755083858967
//Max 1.196849703789
//Number of zeros 0

#ifndef W6_H_
#define W6_H_

#ifdef __WEIGHTS_FROM_FILE__
model_default_t w6[144];
#else
model_default_t w6[144] = {0.1117, 0.1960, 0.1198, -0.0757, -0.1605, 0.1264, -0.1153, 0.1961, 0.0653, 0.0085, -0.0113, 0.1705, 0.3322, 0.4675, -0.0760, -0.0373, 0.1831, 0.2996, 0.3014, -0.2006, 0.2066, -0.0623, 0.6298, 0.3137, -0.4854, -0.0755, 0.0133, 0.0401, -0.0320, -0.1836, 0.1134, -0.2553, 0.1809, 0.2560, 0.2912, -0.1356, -0.3225, -0.3303, 0.5228, 0.3315, -0.2128, 0.1678, 0.2927, 0.0971, 0.8940, -0.0302, 0.1707, 0.0183, -0.2885, 0.1917, 0.0880, 0.1976, 0.3393, -0.1992, 0.2004, 0.7427, -0.1591, 0.0987, 0.3164, -0.1729, 0.2207, 0.4670, -0.1697, -0.3926, -0.4932, 0.1033, 0.5103, 0.3709, 0.2202, -0.0652, 1.0144, -0.5751, 0.0518, 0.0291, -0.3079, 0.8277, 0.1626, -0.2009, 0.4066, 0.1023, 0.4622, 0.2003, 0.1109, 0.3268, 0.1835, 0.1681, 0.0278, 0.1545, -0.0797, -0.2185, -0.1007, -0.0029, 0.1813, 0.0603, 0.1097, -0.0852, -0.1478, 0.6845, -0.2403, 0.1389, 0.5859, 0.4081, -0.2176, -0.0121, 0.1587, -0.1665, -0.2751, -0.0605, -0.0319, -0.0621, 0.3782, -0.0785, -0.2827, 0.1532, 0.1407, 1.1968, 0.1224, 0.2489, 1.0245, -0.7551, 0.1259, 0.0321, 0.0518, -0.2958, 0.0409, 0.1564, 0.3492, -0.0422, -0.1154, 0.8818, 0.1135, 0.2690, 0.4349, 0.6315, -0.0733, 0.2261, -0.0955, 0.1213, 0.3346, 0.1534, -0.0069, 0.2537, 0.1192, -0.0300};
#endif

#endif
