//Numpy array shape [3, 3, 4, 4]
//Min -0.961033880711
//Max 0.709969699383
//Number of zeros 0

#ifndef W8_H_
#define W8_H_

#ifdef __WEIGHTS_FROM_FILE__
model_default_t w8[144];
#else
model_default_t w8[144] = {0.1534, -0.0567, 0.0302, 0.5373, 0.6340, -0.1141, 0.2091, 0.2154, 0.3587, -0.0301, 0.4865, 0.0807, -0.0109, -0.0680, 0.0701, 0.0698, -0.1869, -0.2746, 0.0932, 0.4889, -0.1529, -0.2032, 0.2008, 0.1528, 0.1059, -0.0245, -0.0548, 0.3108, -0.4183, -0.2042, -0.1010, -0.7075, -0.1238, 0.1711, -0.4002, 0.5146, 0.5261, -0.1680, -0.3150, 0.2734, 0.3584, -0.0747, -0.0443, 0.3017, -0.1105, 0.1052, 0.2615, 0.0752, -0.0908, -0.2590, 0.2628, -0.3673, 0.0506, -0.2835, -0.2493, 0.1395, -0.3303, -0.1073, 0.0005, -0.0500, -0.0199, 0.2148, 0.2798, 0.4594, -0.2155, 0.3279, 0.2082, 0.4170, 0.2258, 0.2866, 0.5309, 0.2506, -0.1870, 0.4475, -0.3113, 0.6158, -0.1979, -0.2376, -0.0745, -0.4218, 0.1139, 0.0384, -0.3847, -0.0622, 0.4016, -0.2871, 0.0921, -0.6029, -0.0269, -0.1867, 0.1141, -0.0995, 0.1705, 0.2323, 0.0778, 0.3720, -0.9610, -0.4456, -0.5347, -0.5372, 0.6024, 0.2180, -0.0735, 0.2545, 0.3071, -0.1574, 0.1166, 0.1069, 0.1070, -0.0170, 0.1136, 0.1588, -0.0150, 0.5790, -0.3313, 0.7100, 0.0331, -0.4513, 0.0453, 0.1114, 0.1426, 0.0791, 0.3538, 0.3724, -0.0372, -0.0173, 0.0508, 0.0452, -0.4613, -0.3011, -0.1527, -0.3157, 0.1627, -0.2770, 0.4546, 0.3055, 0.2427, -0.1205, -0.4063, 0.1431, -0.1972, -0.0553, -0.1107, -0.0008};
#endif

#endif
