//Numpy array shape [32, 12]
//Min -1.025661230087
//Max 1.134024858475
//Number of zeros 0

#ifndef W12_H_
#define W12_H_

#ifndef __SYNTHESIS__
model_default_t w12[384];
#else
model_default_t w12[384] = {-0.3427, 0.3574, -0.0571, 0.1088, 0.1929, -0.2068, -0.0895, -0.0314, -0.0408, -0.0255, 0.4722, 0.2279, -0.0730, -0.0497, 0.3610, 0.2144, -0.3497, 0.4318, -0.1974, -0.1507, 0.2733, -0.1304, -0.2199, -0.5138, 0.6114, 0.4087, 0.1348, 0.2095, 0.0708, 0.2062, 0.5414, -0.1112, -0.9116, 0.7409, 0.6357, 0.5537, 0.1060, 0.3403, 0.4339, -0.5283, -0.3738, 0.3541, -0.3609, 0.0558, 0.9693, 0.0652, -0.4198, 0.5454, -0.5530, 0.4971, 0.6639, 0.2370, -0.2725, 0.3981, -0.1400, -0.2211, -0.1729, 0.6184, 0.2429, -0.0449, 0.0279, 0.5497, 0.8630, 0.0922, -0.4280, -0.1551, -0.1300, 0.2957, -0.2776, -0.2230, -0.0235, 0.5308, 0.3605, 0.2822, 0.1076, -0.5309, -0.0556, 0.1735, -0.2179, 0.3435, -0.0185, 0.1243, -0.0875, 0.1616, -0.1092, 0.0154, 0.3576, -0.1935, 0.4012, 0.2793, -0.5090, 0.0163, -0.1766, -0.0196, 0.5712, 0.6173, 0.2264, -0.0972, -0.0726, 0.4060, 0.0018, 0.1604, 0.3537, 0.4113, 0.8401, -0.0058, 0.0172, -0.0243, 1.1340, 0.0660, 0.5470, -0.2639, 0.3623, 0.0557, -0.2506, 0.1836, -0.3349, 0.2017, 0.1083, 0.3016, -0.1471, -0.2772, 0.3435, 0.2925, 0.0360, 0.3471, -0.0989, 0.3512, -0.0565, 0.2680, -0.1308, 0.3104, 0.3954, 0.1880, -0.0587, 0.4944, 0.2502, 0.0762, 0.0452, 0.0428, -0.0313, 0.7379, -0.1927, 0.5761, 0.1205, -0.0539, 0.2559, -0.2676, 0.2876, -0.1738, -0.1114, 0.2313, 0.3125, -0.4440, 0.2246, 0.2224, 0.4454, -0.0422, 0.6627, 0.3430, 0.2316, -0.0928, 0.2231, -0.0284, -0.0198, 0.2886, 0.4887, -0.4391, 0.0355, 0.6327, -0.1376, 0.0777, 0.6384, -0.0371, 0.0406, -0.0882, -0.0090, -0.2507, -0.4450, -0.1128, 0.0031, -0.0468, 0.0986, 0.3602, 0.1354, 0.4986, -0.1353, 0.0312, -0.0346, 0.0942, 0.2852, -0.4529, -0.3380, 0.8775, -0.4393, 0.2772, -0.2628, 0.0855, -0.2625, 0.3203, -0.1402, -0.0524, -0.0341, 0.7128, -0.2530, 0.1170, -0.0081, -0.0539, -0.0444, -0.2312, 0.0837, 0.0050, 0.6903, 0.1496, 0.2478, 0.2728, 0.2845, 0.5218, 0.2319, -0.1252, 0.1459, -0.1748, 0.4180, -0.2057, 0.3502, 0.1402, 0.1464, 0.0583, 0.4577, 0.0078, 0.3283, -0.1811, -0.0998, -0.1711, 0.2637, -0.0750, -0.3404, 0.3239, 0.0718, -0.4426, -0.1148, -0.1442, -0.1822, 0.3946, 0.2495, 0.4264, 0.3961, -0.4595, -0.3096, -0.0841, 0.0282, -0.1777, 0.2327, 0.3702, 0.0065, -0.1082, -0.1650, -0.2610, 0.2780, 0.2037, -0.2736, -0.0428, -0.3338, -0.1380, 0.2929, 0.0505, -0.3513, 0.2711, -0.3704, 0.2424, -0.3323, -0.2940, -0.1289, -0.0370, -0.2758, 0.0481, 0.3312, -0.1563, -0.1350, -0.2490, 0.1010, -0.3177, -0.2753, 0.0854, 0.1558, 0.2192, -0.0325, -0.0657, 0.2453, 0.2557, 0.0013, 0.2759, -0.2815, 0.0935, 0.1499, 0.1509, 0.0358, -0.2154, 0.2953, -0.3961, 0.0136, 0.4046, 0.1997, -0.1338, 0.1530, -0.0031, 0.0678, 0.1276, -0.5564, -0.2130, 0.1958, 0.4971, 0.1984, -0.0699, 0.5335, -0.4664, -0.0020, 0.4833, 0.1349, -0.6630, 0.6023, -0.2403, 0.0954, 0.2526, -1.0257, 0.0972, -0.1030, -0.0042, -0.9456, 0.4277, -0.0024, 0.1957, 0.4557, -0.1565, 0.7806, 0.3719, 0.9239, 0.3392, -0.0875, 0.1201, 0.4278, 0.0223, 0.2065, -0.2324, 0.0558, 0.1562, -0.2758, 0.0694, 0.4948, 0.3762, -0.0780, -0.2310, -0.4164, -0.4249, 0.3222, 0.4515, 0.1471, -0.6340, 0.2595, -0.4381, -0.4597, 0.3039, 0.5072, -0.3043, -0.5029, 0.2668, -0.0314, 0.4709, 0.8735, 0.4152, 0.1331, 0.0351, -0.3402, 0.3519, 0.2941, -0.0162, 0.1068, 0.4854, 0.4570, 0.5526, -0.0417, -0.0742, -0.0662, 0.2986};
#endif

#endif
