//Numpy array shape [3, 3, 3, 8]
//Min -0.365078777075
//Max 1.551200866699
//Number of zeros 0

#ifndef W2_H_
#define W2_H_

#ifdef __WEIGHTS_FROM_FILE__
static model_default_t w2[216];
#else
static model_default_t w2[216] = {-0.0985, -0.0649, 1.0813, -0.1359, -0.1669, -0.2259, -0.1992, -0.0331, -0.2227, -0.1917, -0.0424, -0.1047, -0.0819, -0.0784, -0.1745, -0.1133, -0.1931, -0.0898, 0.0641, -0.0327, -0.1691, -0.3278, 0.0086, -0.2008, -0.0928, -0.0307, -0.0405, -0.1946, -0.1621, -0.1504, -0.1273, -0.0521, -0.0765, -0.0557, -0.0388, -0.1174, -0.1290, 1.4173, -0.1909, -0.0265, -0.1106, 0.0081, -0.1334, 1.1086, -0.1279, -0.1473, -0.0428, -0.0622, -0.0165, 0.0917, -0.0387, -0.0998, -0.0704, -0.2576, -0.1237, -0.0688, -0.1665, 0.1255, -0.1401, -0.0480, 0.0088, -0.0954, -0.1834, -0.1162, -0.1167, 1.2891, -0.1014, -0.0577, -0.1722, -0.1298, -0.1875, -0.0695, 1.4880, -0.0413, 0.0328, -0.3012, -0.1840, -0.0975, -0.0521, 0.0304, -0.1796, -0.1161, -0.1461, -0.0918, -0.0906, -0.1073, -0.1020, 0.0977, -0.0813, -0.1278, -0.0940, -0.0648, -0.1074, -0.0636, 1.2570, 0.0881, 0.0035, 0.9133, -0.0725, -0.1042, -0.0657, -0.0731, -0.0471, -0.0462, -0.0934, -0.0317, -0.0608, -0.1502, 0.0420, -0.0239, -0.2133, -0.0840, -0.0062, -0.0239, -0.1850, -0.0055, -0.1634, 0.5447, -0.0086, -0.0781, -0.0643, -0.0026, -0.0459, -0.1144, -0.0698, -0.2611, -0.0123, -0.1454, 0.8070, -0.1786, -0.1804, -0.0668, 0.9576, -0.1052, -0.0843, -0.0123, -0.0207, -0.0255, -0.0581, -0.0683, -0.0107, -0.0944, -0.1103, 0.0397, -0.0736, -0.0593, 0.0726, -0.1807, -0.1736, -0.2323, -0.0874, -0.1650, -0.1539, -0.1064, -0.0420, -0.1121, -0.0336, -0.0360, -0.3207, -0.1405, -0.2347, -0.0659, -0.1497, 0.0382, -0.1857, -0.0261, 0.0547, -0.0738, 0.0456, -0.0334, -0.0385, -0.1047, 0.0012, -0.1668, 0.0416, -0.0448, -0.1879, -0.0771, 0.6346, -0.0951, 1.2602, -0.0847, -0.1161, -0.0198, -0.0797, -0.0363, 0.0189, 1.5512, -0.0991, -0.0720, -0.1096, -0.0771, -0.0399, -0.1291, -0.0303, -0.3117, -0.2671, -0.1964, 0.9940, -0.0882, -0.0824, -0.1911, -0.0226, -0.1947, 0.0958, -0.0907, -0.0024, -0.1242, -0.3651, -0.3120, 0.0205, -0.0871, -0.1366, -0.0842, 0.0121, -0.2192};
#endif

#endif
